<?xml version="1.0"?>
<opencv_storage>
<cascade>
  <stageType>BOOST</stageType>
  <featureType>HAAR</featureType>
  <height>32</height>
  <width>32</width>
  <stageParams>
    <boostType>GAB</boostType>
    <minHitRate>9.9500000476837158e-01</minHitRate>
    <maxFalseAlarm>5.0000000000000000e-01</maxFalseAlarm>
    <weightTrimRate>9.4999999999999996e-01</weightTrimRate>
    <maxDepth>1</maxDepth>
    <maxWeakCount>100</maxWeakCount></stageParams>
  <featureParams>
    <maxCatCount>0</maxCatCount>
    <featSize>1</featSize>
    <mode>ALL</mode></featureParams>
  <stageNum>8</stageNum>
  <stages>
    <!-- stage 0 -->
    <_>
      <maxWeakCount>3</maxWeakCount>
      <stageThreshold>-1.1901711225509644e+00</stageThreshold>
      <weakClassifiers>
        <_>
          <internalNodes>
            0 -1 9 1.5716999769210815e-02</internalNodes>
          <leafValues>
            -9.5283019542694092e-01 5.9090906381607056e-01</leafValues></_>
        <_>
          <internalNodes>
            0 -1 27 3.6256015300750732e-02</internalNodes>
          <leafValues>
            -8.0467748641967773e-01 7.5433939695358276e-01</leafValues></_>
        <_>
          <internalNodes>
            0 -1 24 4.9461275339126587e-03</internalNodes>
          <leafValues>
            -8.5162752866744995e-01 5.6733655929565430e-01</leafValues></_></weakClassifiers></_>
    <!-- stage 1 -->
    <_>
      <maxWeakCount>5</maxWeakCount>
      <stageThreshold>-2.3226528167724609e+00</stageThreshold>
      <weakClassifiers>
        <_>
          <internalNodes>
            0 -1 11 -3.0054440721869469e-02</internalNodes>
          <leafValues>
            4.4512194395065308e-01 -8.5550457239151001e-01</leafValues></_>
        <_>
          <internalNodes>
            0 -1 1 6.7650511860847473e-02</internalNodes>
          <leafValues>
            -5.8598446846008301e-01 7.7045899629592896e-01</leafValues></_>
        <_>
          <internalNodes>
            0 -1 39 5.4565565660595894e-03</internalNodes>
          <leafValues>
            -7.5958830118179321e-01 4.7180756926536560e-01</leafValues></_>
        <_>
          <internalNodes>
            0 -1 17 3.1462814658880234e-03</internalNodes>
          <leafValues>
            -7.4125856161117554e-01 4.3847405910491943e-01</leafValues></_>
        <_>
          <internalNodes>
            0 -1 16 4.4636540114879608e-03</internalNodes>
          <leafValues>
            -6.1171275377273560e-01 5.0038748979568481e-01</leafValues></_></weakClassifiers></_>
    <!-- stage 2 -->
    <_>
      <maxWeakCount>5</maxWeakCount>
      <stageThreshold>-1.5837953090667725e+00</stageThreshold>
      <weakClassifiers>
        <_>
          <internalNodes>
            0 -1 15 5.3910180926322937e-02</internalNodes>
          <leafValues>
            -8.5144126415252686e-01 5.6375837326049805e-01</leafValues></_>
        <_>
          <internalNodes>
            0 -1 12 -2.3469845764338970e-03</internalNodes>
          <leafValues>
            4.8583713173866272e-01 -7.2034615278244019e-01</leafValues></_>
        <_>
          <internalNodes>
            0 -1 38 -5.8975508436560631e-03</internalNodes>
          <leafValues>
            4.1786870360374451e-01 -7.1760779619216919e-01</leafValues></_>
        <_>
          <internalNodes>
            0 -1 6 6.6406656987965107e-03</internalNodes>
          <leafValues>
            -8.9402687549591064e-01 3.4260290861129761e-01</leafValues></_>
        <_>
          <internalNodes>
            0 -1 25 1.0721608996391296e-03</internalNodes>
          <leafValues>
            -7.4203300476074219e-01 4.1204366087913513e-01</leafValues></_></weakClassifiers></_>
    <!-- stage 3 -->
    <_>
      <maxWeakCount>5</maxWeakCount>
      <stageThreshold>-1.5747978687286377e+00</stageThreshold>
      <weakClassifiers>
        <_>
          <internalNodes>
            0 -1 0 5.2218489348888397e-02</internalNodes>
          <leafValues>
            -8.1107491254806519e-01 5.2688169479370117e-01</leafValues></_>
        <_>
          <internalNodes>
            0 -1 28 -2.5718880351632833e-03</internalNodes>
          <leafValues>
            3.2109892368316650e-01 -7.8921806812286377e-01</leafValues></_>
        <_>
          <internalNodes>
            0 -1 19 -8.8776991469785571e-04</internalNodes>
          <leafValues>
            3.8834670186042786e-01 -7.1917307376861572e-01</leafValues></_>
        <_>
          <internalNodes>
            0 -1 34 6.4953775145113468e-03</internalNodes>
          <leafValues>
            -6.8613988161087036e-01 3.6778715252876282e-01</leafValues></_>
        <_>
          <internalNodes>
            0 -1 36 1.5188412740826607e-02</internalNodes>
          <leafValues>
            -7.3063862323760986e-01 3.8781800866127014e-01</leafValues></_></weakClassifiers></_>
    <!-- stage 4 -->
    <_>
      <maxWeakCount>7</maxWeakCount>
      <stageThreshold>-1.4313819408416748e+00</stageThreshold>
      <weakClassifiers>
        <_>
          <internalNodes>
            0 -1 3 1.9132377207279205e-01</internalNodes>
          <leafValues>
            -7.7566134929656982e-01 5.2156865596771240e-01</leafValues></_>
        <_>
          <internalNodes>
            0 -1 22 3.1891874969005585e-03</internalNodes>
          <leafValues>
            -8.1121301651000977e-01 3.5387918353080750e-01</leafValues></_>
        <_>
          <internalNodes>
            0 -1 13 -9.0740323066711426e-03</internalNodes>
          <leafValues>
            4.8555952310562134e-01 -5.9417951107025146e-01</leafValues></_>
        <_>
          <internalNodes>
            0 -1 26 -1.5618462930433452e-04</internalNodes>
          <leafValues>
            2.9208210110664368e-01 -7.8970587253570557e-01</leafValues></_>
        <_>
          <internalNodes>
            0 -1 14 7.2531729936599731e-02</internalNodes>
          <leafValues>
            -4.2014884948730469e-01 6.1468887329101563e-01</leafValues></_>
        <_>
          <internalNodes>
            0 -1 44 1.3330753426998854e-03</internalNodes>
          <leafValues>
            -6.9276642799377441e-01 3.8244953751564026e-01</leafValues></_>
        <_>
          <internalNodes>
            0 -1 18 1.2155598029494286e-02</internalNodes>
          <leafValues>
            -4.6172261238098145e-01 4.9528914690017700e-01</leafValues></_></weakClassifiers></_>
    <!-- stage 5 -->
    <_>
      <maxWeakCount>7</maxWeakCount>
      <stageThreshold>-1.3866770267486572e+00</stageThreshold>
      <weakClassifiers>
        <_>
          <internalNodes>
            0 -1 30 -6.5571442246437073e-02</internalNodes>
          <leafValues>
            5.1417005062103271e-01 -7.6285415887832642e-01</leafValues></_>
        <_>
          <internalNodes>
            0 -1 31 -2.8336015529930592e-03</internalNodes>
          <leafValues>
            3.3365204930305481e-01 -7.4629616737365723e-01</leafValues></_>
        <_>
          <internalNodes>
            0 -1 37 -4.4096761848777533e-04</internalNodes>
          <leafValues>
            3.3704680204391479e-01 -6.6623997688293457e-01</leafValues></_>
        <_>
          <internalNodes>
            0 -1 21 3.0500413849949837e-03</internalNodes>
          <leafValues>
            -5.8603805303573608e-01 3.5087037086486816e-01</leafValues></_>
        <_>
          <internalNodes>
            0 -1 7 5.3971139714121819e-03</internalNodes>
          <leafValues>
            -9.3258935213088989e-01 2.4967235326766968e-01</leafValues></_>
        <_>
          <internalNodes>
            0 -1 5 2.7795936912298203e-02</internalNodes>
          <leafValues>
            -3.9034968614578247e-01 5.9227538108825684e-01</leafValues></_>
        <_>
          <internalNodes>
            0 -1 42 -2.8543751686811447e-02</internalNodes>
          <leafValues>
            5.7852035760879517e-01 -3.5640534758567810e-01</leafValues></_></weakClassifiers></_>
    <!-- stage 6 -->
    <_>
      <maxWeakCount>6</maxWeakCount>
      <stageThreshold>-1.4321500062942505e+00</stageThreshold>
      <weakClassifiers>
        <_>
          <internalNodes>
            0 -1 23 -5.9599976986646652e-02</internalNodes>
          <leafValues>
            5.0000000000000000e-01 -7.1457487344741821e-01</leafValues></_>
        <_>
          <internalNodes>
            0 -1 40 -3.0556519050151110e-03</internalNodes>
          <leafValues>
            3.9989995956420898e-01 -6.3971060514450073e-01</leafValues></_>
        <_>
          <internalNodes>
            0 -1 29 -4.2812330648303032e-03</internalNodes>
          <leafValues>
            3.0158403515815735e-01 -6.7205125093460083e-01</leafValues></_>
        <_>
          <internalNodes>
            0 -1 32 -3.9193319389596581e-04</internalNodes>
          <leafValues>
            -8.8298559188842773e-01 2.1622540056705475e-01</leafValues></_>
        <_>
          <internalNodes>
            0 -1 2 -2.6527759619057178e-03</internalNodes>
          <leafValues>
            -8.4948652982711792e-01 2.2174945473670959e-01</leafValues></_>
        <_>
          <internalNodes>
            0 -1 20 1.0810319334268570e-02</internalNodes>
          <leafValues>
            -6.5404373407363892e-01 2.5381255149841309e-01</leafValues></_></weakClassifiers></_>
    <!-- stage 7 -->
    <_>
      <maxWeakCount>7</maxWeakCount>
      <stageThreshold>-1.8618998527526855e+00</stageThreshold>
      <weakClassifiers>
        <_>
          <internalNodes>
            0 -1 10 1.6701325774192810e-01</internalNodes>
          <leafValues>
            -6.8844223022460938e-01 4.1463413834571838e-01</leafValues></_>
        <_>
          <internalNodes>
            0 -1 4 3.4668939188122749e-03</internalNodes>
          <leafValues>
            -6.7914986610412598e-01 2.7907770872116089e-01</leafValues></_>
        <_>
          <internalNodes>
            0 -1 35 -1.7067120643332601e-03</internalNodes>
          <leafValues>
            3.1236532330513000e-01 -6.0919994115829468e-01</leafValues></_>
        <_>
          <internalNodes>
            0 -1 33 -2.1036327234469354e-04</internalNodes>
          <leafValues>
            2.6977801322937012e-01 -6.4874005317687988e-01</leafValues></_>
        <_>
          <internalNodes>
            0 -1 43 -5.3823960479348898e-04</internalNodes>
          <leafValues>
            -8.4184223413467407e-01 2.1119509637355804e-01</leafValues></_>
        <_>
          <internalNodes>
            0 -1 41 -6.4740190282464027e-04</internalNodes>
          <leafValues>
            -7.5783801078796387e-01 2.3313750326633453e-01</leafValues></_>
        <_>
          <internalNodes>
            0 -1 8 2.1856082603335381e-03</internalNodes>
          <leafValues>
            -6.3892799615859985e-01 2.6214244961738586e-01</leafValues></_></weakClassifiers></_></stages>
  <features>
    <_>
      <rects>
        <_>
          0 0 16 14 -1.</_>
        <_>
          0 0 8 7 2.</_>
        <_>
          8 7 8 7 2.</_></rects>
      <tilted>0</tilted></_>
    <_>
      <rects>
        <_>
          0 10 32 4 -1.</_>
        <_>
          8 10 16 4 2.</_></rects>
      <tilted>0</tilted></_>
    <_>
      <rects>
        <_>
          2 18 30 2 -1.</_>
        <_>
          2 18 15 1 2.</_>
        <_>
          17 19 15 1 2.</_></rects>
      <tilted>0</tilted></_>
    <_>
      <rects>
        <_>
          3 7 28 23 -1.</_>
        <_>
          10 7 14 23 2.</_></rects>
      <tilted>0</tilted></_>
    <_>
      <rects>
        <_>
          3 16 8 4 -1.</_>
        <_>
          3 16 4 2 2.</_>
        <_>
          7 18 4 2 2.</_></rects>
      <tilted>0</tilted></_>
    <_>
      <rects>
        <_>
          3 29 27 2 -1.</_>
        <_>
          12 29 9 2 3.</_></rects>
      <tilted>0</tilted></_>
    <_>
      <rects>
        <_>
          5 16 15 4 -1.</_>
        <_>
          5 18 15 2 2.</_></rects>
      <tilted>0</tilted></_>
    <_>
      <rects>
        <_>
          6 13 10 10 -1.</_>
        <_>
          6 18 10 5 2.</_></rects>
      <tilted>0</tilted></_>
    <_>
      <rects>
        <_>
          6 16 12 2 -1.</_>
        <_>
          6 17 12 1 2.</_></rects>
      <tilted>0</tilted></_>
    <_>
      <rects>
        <_>
          6 16 20 4 -1.</_>
        <_>
          6 18 20 2 2.</_></rects>
      <tilted>0</tilted></_>
    <_>
      <rects>
        <_>
          7 2 19 12 -1.</_>
        <_>
          7 8 19 6 2.</_></rects>
      <tilted>0</tilted></_>
    <_>
      <rects>
        <_>
          7 13 19 6 -1.</_>
        <_>
          7 15 19 2 3.</_></rects>
      <tilted>0</tilted></_>
    <_>
      <rects>
        <_>
          8 15 4 3 -1.</_>
        <_>
          8 16 4 1 3.</_></rects>
      <tilted>0</tilted></_>
    <_>
      <rects>
        <_>
          8 15 18 3 -1.</_>
        <_>
          8 16 18 1 3.</_></rects>
      <tilted>0</tilted></_>
    <_>
      <rects>
        <_>
          9 2 17 12 -1.</_>
        <_>
          9 8 17 6 2.</_></rects>
      <tilted>0</tilted></_>
    <_>
      <rects>
        <_>
          9 5 14 12 -1.</_>
        <_>
          9 8 14 6 2.</_></rects>
      <tilted>0</tilted></_>
    <_>
      <rects>
        <_>
          9 16 15 1 -1.</_>
        <_>
          14 16 5 1 3.</_></rects>
      <tilted>0</tilted></_>
    <_>
      <rects>
        <_>
          9 24 13 8 -1.</_>
        <_>
          9 26 13 4 2.</_></rects>
      <tilted>0</tilted></_>
    <_>
      <rects>
        <_>
          9 27 18 4 -1.</_>
        <_>
          15 27 6 4 3.</_></rects>
      <tilted>0</tilted></_>
    <_>
      <rects>
        <_>
          10 22 3 6 -1.</_>
        <_>
          10 24 3 2 3.</_></rects>
      <tilted>0</tilted></_>
    <_>
      <rects>
        <_>
          11 4 21 6 -1.</_>
        <_>
          9 6 21 2 3.</_></rects>
      <tilted>1</tilted></_>
    <_>
      <rects>
        <_>
          11 10 6 6 -1.</_>
        <_>
          11 12 6 2 3.</_></rects>
      <tilted>0</tilted></_>
    <_>
      <rects>
        <_>
          11 14 6 3 -1.</_>
        <_>
          14 14 3 3 2.</_></rects>
      <tilted>0</tilted></_>
    <_>
      <rects>
        <_>
          12 2 6 12 -1.</_>
        <_>
          12 2 3 12 2.</_></rects>
      <tilted>1</tilted></_>
    <_>
      <rects>
        <_>
          12 14 9 4 -1.</_>
        <_>
          15 14 3 4 3.</_></rects>
      <tilted>0</tilted></_>
    <_>
      <rects>
        <_>
          12 16 8 1 -1.</_>
        <_>
          14 16 4 1 2.</_></rects>
      <tilted>0</tilted></_>
    <_>
      <rects>
        <_>
          12 17 2 2 -1.</_>
        <_>
          12 17 2 1 2.</_></rects>
      <tilted>1</tilted></_>
    <_>
      <rects>
        <_>
          13 3 8 10 -1.</_>
        <_>
          13 8 8 5 2.</_></rects>
      <tilted>0</tilted></_>
    <_>
      <rects>
        <_>
          13 16 12 1 -1.</_>
        <_>
          19 16 6 1 2.</_></rects>
      <tilted>0</tilted></_>
    <_>
      <rects>
        <_>
          15 14 6 5 -1.</_>
        <_>
          18 14 3 5 2.</_></rects>
      <tilted>0</tilted></_>
    <_>
      <rects>
        <_>
          16 0 16 14 -1.</_>
        <_>
          16 0 8 7 2.</_>
        <_>
          24 7 8 7 2.</_></rects>
      <tilted>0</tilted></_>
    <_>
      <rects>
        <_>
          16 15 6 2 -1.</_>
        <_>
          19 15 3 2 2.</_></rects>
      <tilted>0</tilted></_>
    <_>
      <rects>
        <_>
          17 10 4 3 -1.</_>
        <_>
          18 10 2 3 2.</_></rects>
      <tilted>0</tilted></_>
    <_>
      <rects>
        <_>
          17 11 2 6 -1.</_>
        <_>
          18 11 1 6 2.</_></rects>
      <tilted>0</tilted></_>
    <_>
      <rects>
        <_>
          17 11 14 6 -1.</_>
        <_>
          17 11 7 3 2.</_>
        <_>
          24 14 7 3 2.</_></rects>
      <tilted>0</tilted></_>
    <_>
      <rects>
        <_>
          17 28 6 4 -1.</_>
        <_>
          17 30 6 2 2.</_></rects>
      <tilted>0</tilted></_>
    <_>
      <rects>
        <_>
          19 14 7 12 -1.</_>
        <_>
          19 18 7 4 3.</_></rects>
      <tilted>0</tilted></_>
    <_>
      <rects>
        <_>
          19 25 8 2 -1.</_>
        <_>
          19 25 4 1 2.</_>
        <_>
          23 26 4 1 2.</_></rects>
      <tilted>0</tilted></_>
    <_>
      <rects>
        <_>
          20 13 6 12 -1.</_>
        <_>
          22 15 2 12 3.</_></rects>
      <tilted>1</tilted></_>
    <_>
      <rects>
        <_>
          21 14 3 8 -1.</_>
        <_>
          21 18 3 4 2.</_></rects>
      <tilted>0</tilted></_>
    <_>
      <rects>
        <_>
          21 15 4 3 -1.</_>
        <_>
          21 16 4 1 3.</_></rects>
      <tilted>0</tilted></_>
    <_>
      <rects>
        <_>
          21 18 4 2 -1.</_>
        <_>
          22 19 2 2 2.</_></rects>
      <tilted>1</tilted></_>
    <_>
      <rects>
        <_>
          22 2 9 6 -1.</_>
        <_>
          22 2 9 3 2.</_></rects>
      <tilted>1</tilted></_>
    <_>
      <rects>
        <_>
          22 19 3 4 -1.</_>
        <_>
          23 19 1 4 3.</_></rects>
      <tilted>0</tilted></_>
    <_>
      <rects>
        <_>
          24 19 3 6 -1.</_>
        <_>
          24 19 3 3 2.</_></rects>
      <tilted>1</tilted></_></features></cascade>
</opencv_storage>
