<?xml version="1.0"?>
<opencv_storage>
<stage5>
  <maxWeakCount>7</maxWeakCount>
  <stageThreshold>-1.3866770267486572e+00</stageThreshold>
  <weakClassifiers>
    <_>
      <internalNodes>
        0 -1 579295 -6.5571442246437073e-02</internalNodes>
      <leafValues>
        5.1417005062103271e-01 -7.6285415887832642e-01</leafValues></_>
    <_>
      <internalNodes>
        0 -1 599761 -2.8336015529930592e-03</internalNodes>
      <leafValues>
        3.3365204930305481e-01 -7.4629616737365723e-01</leafValues></_>
    <_>
      <internalNodes>
        0 -1 682024 -4.4096761848777533e-04</internalNodes>
      <leafValues>
        3.3704680204391479e-01 -6.6623997688293457e-01</leafValues></_>
    <_>
      <internalNodes>
        0 -1 438376 3.0500413849949837e-03</internalNodes>
      <leafValues>
        -5.8603805303573608e-01 3.5087037086486816e-01</leafValues></_>
    <_>
      <internalNodes>
        0 -1 263081 5.3971139714121819e-03</internalNodes>
      <leafValues>
        -9.3258935213088989e-01 2.4967235326766968e-01</leafValues></_>
    <_>
      <internalNodes>
        0 -1 159457 2.7795936912298203e-02</internalNodes>
      <leafValues>
        -3.9034968614578247e-01 5.9227538108825684e-01</leafValues></_>
    <_>
      <internalNodes>
        0 -1 729683 -2.8543751686811447e-02</internalNodes>
      <leafValues>
        5.7852035760879517e-01 -3.5640534758567810e-01</leafValues></_></weakClassifiers></stage5>
</opencv_storage>
