<?xml version="1.0"?>
<opencv_storage>
<stage1>
  <maxWeakCount>5</maxWeakCount>
  <stageThreshold>-2.3226528167724609e+00</stageThreshold>
  <weakClassifiers>
    <_>
      <internalNodes>
        0 -1 300617 -3.0054440721869469e-02</internalNodes>
      <leafValues>
        4.4512194395065308e-01 -8.5550457239151001e-01</leafValues></_>
    <_>
      <internalNodes>
        0 -1 22383 6.7650511860847473e-02</internalNodes>
      <leafValues>
        -5.8598446846008301e-01 7.7045899629592896e-01</leafValues></_>
    <_>
      <internalNodes>
        0 -1 720743 5.4565565660595894e-03</internalNodes>
      <leafValues>
        -7.5958830118179321e-01 4.7180756926536560e-01</leafValues></_>
    <_>
      <internalNodes>
        0 -1 382861 3.1462814658880234e-03</internalNodes>
      <leafValues>
        -7.4125856161117554e-01 4.3847405910491943e-01</leafValues></_>
    <_>
      <internalNodes>
        0 -1 376523 4.4636540114879608e-03</internalNodes>
      <leafValues>
        -6.1171275377273560e-01 5.0038748979568481e-01</leafValues></_></weakClassifiers></stage1>
</opencv_storage>
